<?xml version="1.0"?>
<opencv_storage>
<stage9>
  <maxWeakCount>11</maxWeakCount>
  <stageThreshold>-1.3227417469024658e+00</stageThreshold>
  <weakClassifiers>
    <_>
      <internalNodes>
        0 -1 5698494 -7.0064580067992210e-03</internalNodes>
      <leafValues>
        -5.6083917617797852e-01 7.2646367549896240e-01</leafValues></_>
    <_>
      <internalNodes>
        0 -1 4693971 8.6288404418155551e-05</internalNodes>
      <leafValues>
        -6.1623930931091309e-01 4.6261247992515564e-01</leafValues></_>
    <_>
      <internalNodes>
        0 -1 1011975 1.7511691112304106e-05</internalNodes>
      <leafValues>
        -3.8944759964942932e-01 7.0368266105651855e-01</leafValues></_>
    <_>
      <internalNodes>
        0 -1 4986249 1.6380709712393582e-04</internalNodes>
      <leafValues>
        -2.9253435134887695e-01 6.2942337989807129e-01</leafValues></_>
    <_>
      <internalNodes>
        0 -1 4193876 -2.5187380379065871e-04</internalNodes>
      <leafValues>
        6.7295038700103760e-01 -2.4492496252059937e-01</leafValues></_>
    <_>
      <internalNodes>
        0 -1 5194106 -2.0501283870544285e-05</internalNodes>
      <leafValues>
        5.7812911272048950e-01 -2.9668831825256348e-01</leafValues></_>
    <_>
      <internalNodes>
        0 -1 7043606 -2.3238220819621347e-05</internalNodes>
      <leafValues>
        5.5889368057250977e-01 -2.5921386480331421e-01</leafValues></_>
    <_>
      <internalNodes>
        0 -1 394061 6.2262952327728271e-01</internalNodes>
      <leafValues>
        -1.5821653604507446e-01 8.0155247449874878e-01</leafValues></_>
    <_>
      <internalNodes>
        0 -1 772657 -7.0065594627521932e-05</internalNodes>
      <leafValues>
        7.0042407512664795e-01 -2.3804606497287750e-01</leafValues></_>
    <_>
      <internalNodes>
        0 -1 6857653 -1.5317647921619937e-05</internalNodes>
      <leafValues>
        7.0897841453552246e-01 -1.9106532633304596e-01</leafValues></_>
    <_>
      <internalNodes>
        0 -1 5747499 -8.2022786955349147e-05</internalNodes>
      <leafValues>
        5.7372611761093140e-01 -2.3764656484127045e-01</leafValues></_></weakClassifiers></stage9>
</opencv_storage>
