<?xml version="1.0"?>
<opencv_storage>
<stage12>
  <maxWeakCount>10</maxWeakCount>
  <stageThreshold>-1.4075947999954224e+00</stageThreshold>
  <weakClassifiers>
    <_>
      <internalNodes>
        0 -1 4042745 4.2447382584214211e-03</internalNodes>
      <leafValues>
        4.0660920739173889e-01 -7.9807692766189575e-01</leafValues></_>
    <_>
      <internalNodes>
        0 -1 42668 -7.0395700633525848e-02</internalNodes>
      <leafValues>
        -7.7528232336044312e-01 2.8157505393028259e-01</leafValues></_>
    <_>
      <internalNodes>
        0 -1 76870 8.4587710443884134e-04</internalNodes>
      <leafValues>
        -3.7939885258674622e-01 4.8375725746154785e-01</leafValues></_>
    <_>
      <internalNodes>
        0 -1 5559122 -4.5592700189445168e-05</internalNodes>
      <leafValues>
        6.2769979238510132e-01 -2.7278369665145874e-01</leafValues></_>
    <_>
      <internalNodes>
        0 -1 3049178 -2.6889536529779434e-03</internalNodes>
      <leafValues>
        4.3396791815757751e-01 -4.1995120048522949e-01</leafValues></_>
    <_>
      <internalNodes>
        0 -1 5204723 5.0797596486518160e-05</internalNodes>
      <leafValues>
        -3.4838402271270752e-01 4.8500958085060120e-01</leafValues></_>
    <_>
      <internalNodes>
        0 -1 2991988 5.2125006914138794e-03</internalNodes>
      <leafValues>
        -6.8298190832138062e-01 2.4722036719322205e-01</leafValues></_>
    <_>
      <internalNodes>
        0 -1 7675988 4.2117681005038321e-06</internalNodes>
      <leafValues>
        -3.5605785250663757e-01 4.7401985526084900e-01</leafValues></_>
    <_>
      <internalNodes>
        0 -1 7674521 -6.1862279835622758e-05</internalNodes>
      <leafValues>
        6.1745005846023560e-01 -2.6327005028724670e-01</leafValues></_>
    <_>
      <internalNodes>
        0 -1 5493288 -5.0847647798946127e-05</internalNodes>
      <leafValues>
        5.3217631578445435e-01 -3.0315381288528442e-01</leafValues></_></weakClassifiers></stage12>
</opencv_storage>
