<?xml version="1.0"?>
<opencv_storage>
<stage10>
  <maxWeakCount>9</maxWeakCount>
  <stageThreshold>-6.4190274477005005e-01</stageThreshold>
  <weakClassifiers>
    <_>
      <internalNodes>
        0 -1 67119 4.5769698917865753e-02</internalNodes>
      <leafValues>
        -6.0113960504531860e-01 4.8919135332107544e-01</leafValues></_>
    <_>
      <internalNodes>
        0 -1 7144119 -1.8676819308893755e-05</internalNodes>
      <leafValues>
        6.9736665487289429e-01 -2.3461128771305084e-01</leafValues></_>
    <_>
      <internalNodes>
        0 -1 2567841 3.8847807445563376e-05</internalNodes>
      <leafValues>
        -4.7776457667350769e-01 3.9616590738296509e-01</leafValues></_>
    <_>
      <internalNodes>
        0 -1 6166504 3.1834271794650704e-05</internalNodes>
      <leafValues>
        -2.4915798008441925e-01 7.5780987739562988e-01</leafValues></_>
    <_>
      <internalNodes>
        0 -1 3057485 1.2173069990240037e-05</internalNodes>
      <leafValues>
        -2.8513073921203613e-01 6.2464505434036255e-01</leafValues></_>
    <_>
      <internalNodes>
        0 -1 6915928 -6.5586471464484930e-05</internalNodes>
      <leafValues>
        5.2718263864517212e-01 -4.0498319268226624e-01</leafValues></_>
    <_>
      <internalNodes>
        0 -1 6499593 -1.7251896206289530e-03</internalNodes>
      <leafValues>
        3.9174887537956238e-01 -5.0452440977096558e-01</leafValues></_>
    <_>
      <internalNodes>
        0 -1 6975596 3.2943156838882715e-05</internalNodes>
      <leafValues>
        -3.4065556526184082e-01 5.7664978504180908e-01</leafValues></_>
    <_>
      <internalNodes>
        0 -1 6690611 2.0492527255555615e-05</internalNodes>
      <leafValues>
        -2.3144455254077911e-01 6.6052055358886719e-01</leafValues></_></weakClassifiers></stage10>
</opencv_storage>
