<?xml version="1.0"?>
<opencv_storage>
<stage15>
  <maxWeakCount>11</maxWeakCount>
  <stageThreshold>-1.3133454322814941e+00</stageThreshold>
  <weakClassifiers>
    <_>
      <internalNodes>
        0 -1 68553 -2.2582743316888809e-02</internalNodes>
      <leafValues>
        -8.1684982776641846e-01 4.6948003768920898e-01</leafValues></_>
    <_>
      <internalNodes>
        0 -1 5251633 1.5306111890822649e-05</internalNodes>
      <leafValues>
        -4.6294227242469788e-01 3.6714285612106323e-01</leafValues></_>
    <_>
      <internalNodes>
        0 -1 3301630 -4.5686363591812551e-05</internalNodes>
      <leafValues>
        6.4731287956237793e-01 -2.2562195360660553e-01</leafValues></_>
    <_>
      <internalNodes>
        0 -1 6798235 4.2998311982955784e-05</internalNodes>
      <leafValues>
        -3.3000317215919495e-01 4.8395743966102600e-01</leafValues></_>
    <_>
      <internalNodes>
        0 -1 6180083 -2.0716108338092454e-05</internalNodes>
      <leafValues>
        4.6097150444984436e-01 -3.7524557113647461e-01</leafValues></_>
    <_>
      <internalNodes>
        0 -1 7639078 -1.8257003830512986e-05</internalNodes>
      <leafValues>
        5.6049144268035889e-01 -3.0258852243423462e-01</leafValues></_>
    <_>
      <internalNodes>
        0 -1 6130229 1.5025132597656921e-05</internalNodes>
      <leafValues>
        -4.1290816664695740e-01 3.7417581677436829e-01</leafValues></_>
    <_>
      <internalNodes>
        0 -1 5665197 -2.9224540412542410e-05</internalNodes>
      <leafValues>
        6.8002480268478394e-01 -2.3316830396652222e-01</leafValues></_>
    <_>
      <internalNodes>
        0 -1 3750885 8.4916009654989466e-06</internalNodes>
      <leafValues>
        -2.4220293760299683e-01 6.6480070352554321e-01</leafValues></_>
    <_>
      <internalNodes>
        0 -1 5761722 6.0859345830976963e-04</internalNodes>
      <leafValues>
        2.2818416357040405e-01 -8.1200414896011353e-01</leafValues></_>
    <_>
      <internalNodes>
        0 -1 31171 1.3388926163315773e-03</internalNodes>
      <leafValues>
        -2.6254585385322571e-01 7.3838871717453003e-01</leafValues></_></weakClassifiers></stage15>
</opencv_storage>
