<?xml version="1.0"?>
<opencv_storage>
<stage15>
  <maxWeakCount>12</maxWeakCount>
  <stageThreshold>-9.7893428802490234e-01</stageThreshold>
  <weakClassifiers>
    <_>
      <internalNodes>
        0 -1 6018421 -1.5534159319940954e-04</internalNodes>
      <leafValues>
        3.9471805095672607e-01 -7.6884424686431885e-01</leafValues></_>
    <_>
      <internalNodes>
        0 -1 7762600 -7.5797343015437946e-06</internalNodes>
      <leafValues>
        5.5246573686599731e-01 -3.0085334181785583e-01</leafValues></_>
    <_>
      <internalNodes>
        0 -1 2983858 4.1120711102848873e-05</internalNodes>
      <leafValues>
        -3.4165018796920776e-01 4.1653293371200562e-01</leafValues></_>
    <_>
      <internalNodes>
        0 -1 5705296 3.9641443436266854e-05</internalNodes>
      <leafValues>
        -3.1710323691368103e-01 4.0052524209022522e-01</leafValues></_>
    <_>
      <internalNodes>
        0 -1 3957974 -5.8889210777124390e-05</internalNodes>
      <leafValues>
        2.8918603062629700e-01 -4.5828339457511902e-01</leafValues></_>
    <_>
      <internalNodes>
        0 -1 4658450 -1.3250220217742026e-04</internalNodes>
      <leafValues>
        2.5162044167518616e-01 -5.6360810995101929e-01</leafValues></_>
    <_>
      <internalNodes>
        0 -1 4004044 1.3664150901604444e-04</internalNodes>
      <leafValues>
        -2.7127739787101746e-01 5.3877258300781250e-01</leafValues></_>
    <_>
      <internalNodes>
        0 -1 3036361 1.6568252249271609e-05</internalNodes>
      <leafValues>
        -1.7376311123371124e-01 7.0068651437759399e-01</leafValues></_>
    <_>
      <internalNodes>
        0 -1 7099003 8.8636988948564976e-06</internalNodes>
      <leafValues>
        -2.2783015668392181e-01 5.0981724262237549e-01</leafValues></_>
    <_>
      <internalNodes>
        0 -1 6244856 -4.1344985220348462e-05</internalNodes>
      <leafValues>
        3.7590560317039490e-01 -3.3126375079154968e-01</leafValues></_>
    <_>
      <internalNodes>
        0 -1 6212920 1.4102774002822116e-05</internalNodes>
      <leafValues>
        -3.7594810128211975e-01 3.5782754421234131e-01</leafValues></_>
    <_>
      <internalNodes>
        0 -1 6687178 5.4178381105884910e-05</internalNodes>
      <leafValues>
        -2.1094505488872528e-01 6.5723252296447754e-01</leafValues></_></weakClassifiers></stage15>
</opencv_storage>
