<?xml version="1.0"?>
<opencv_storage>
<stage17>
  <maxWeakCount>18</maxWeakCount>
  <stageThreshold>-1.3519580364227295e+00</stageThreshold>
  <weakClassifiers>
    <_>
      <internalNodes>
        0 -1 7562286 6.3994328957051039e-04</internalNodes>
      <leafValues>
        4.0435108542442322e-01 -5.2059924602508545e-01</leafValues></_>
    <_>
      <internalNodes>
        0 -1 5357933 6.5297531364194583e-06</internalNodes>
      <leafValues>
        -4.0768426656723022e-01 3.2922729849815369e-01</leafValues></_>
    <_>
      <internalNodes>
        0 -1 5672452 -1.4823289120613481e-06</internalNodes>
      <leafValues>
        -7.6965910196304321e-01 1.8077716231346130e-01</leafValues></_>
    <_>
      <internalNodes>
        0 -1 6703124 3.1659972592024133e-05</internalNodes>
      <leafValues>
        -3.4351733326911926e-01 3.1838673353195190e-01</leafValues></_>
    <_>
      <internalNodes>
        0 -1 3845538 1.0218556271865964e-03</internalNodes>
      <leafValues>
        -7.0954149961471558e-01 1.6005904972553253e-01</leafValues></_>
    <_>
      <internalNodes>
        0 -1 5598352 -1.7384834587574005e-02</internalNodes>
      <leafValues>
        -8.0384618043899536e-01 1.0887004435062408e-01</leafValues></_>
    <_>
      <internalNodes>
        0 -1 6470389 2.0023795514134690e-05</internalNodes>
      <leafValues>
        -2.4773168563842773e-01 4.8378014564514160e-01</leafValues></_>
    <_>
      <internalNodes>
        0 -1 5551947 4.1543593397364020e-05</internalNodes>
      <leafValues>
        -2.7104747295379639e-01 4.4139963388442993e-01</leafValues></_>
    <_>
      <internalNodes>
        0 -1 4251597 1.5425038873218000e-04</internalNodes>
      <leafValues>
        -3.0342301726341248e-01 3.4656852483749390e-01</leafValues></_>
    <_>
      <internalNodes>
        0 -1 5341120 2.8305348678259179e-05</internalNodes>
      <leafValues>
        -2.0482073724269867e-01 4.7380822896957397e-01</leafValues></_>
    <_>
      <internalNodes>
        0 -1 5938900 -2.1352923795348033e-05</internalNodes>
      <leafValues>
        3.8925945758819580e-01 -2.9699692130088806e-01</leafValues></_>
    <_>
      <internalNodes>
        0 -1 4310847 1.4082070440053940e-02</internalNodes>
      <leafValues>
        2.4639722704887390e-01 -5.3132510185241699e-01</leafValues></_>
    <_>
      <internalNodes>
        0 -1 7206613 6.8274799559731036e-05</internalNodes>
      <leafValues>
        -2.4437002837657928e-01 4.7533532977104187e-01</leafValues></_>
    <_>
      <internalNodes>
        0 -1 4791932 1.6355885236407630e-05</internalNodes>
      <leafValues>
        -3.1043243408203125e-01 3.6999762058258057e-01</leafValues></_>
    <_>
      <internalNodes>
        0 -1 4078696 -2.4117343855323270e-05</internalNodes>
      <leafValues>
        5.7740414142608643e-01 -1.8201385438442230e-01</leafValues></_>
    <_>
      <internalNodes>
        0 -1 5110123 2.7157402655575424e-05</internalNodes>
      <leafValues>
        -3.0071106553077698e-01 3.9256316423416138e-01</leafValues></_>
    <_>
      <internalNodes>
        0 -1 4725994 -2.3643286840524524e-04</internalNodes>
      <leafValues>
        4.0671476721763611e-01 -2.6223042607307434e-01</leafValues></_>
    <_>
      <internalNodes>
        0 -1 5778481 3.9687560638412833e-04</internalNodes>
      <leafValues>
        -5.8980226516723633e-01 2.0089556276798248e-01</leafValues></_></weakClassifiers></stage17>
</opencv_storage>
