<?xml version="1.0"?>
<opencv_storage>
<stage4>
  <maxWeakCount>7</maxWeakCount>
  <stageThreshold>-7.7397799491882324e-01</stageThreshold>
  <weakClassifiers>
    <_>
      <internalNodes>
        0 -1 3093037 -1.0681403800845146e-02</internalNodes>
      <leafValues>
        -7.9104477167129517e-01 4.5945945382118225e-01</leafValues></_>
    <_>
      <internalNodes>
        0 -1 5358336 3.8232552469708025e-05</internalNodes>
      <leafValues>
        -4.5308065414428711e-01 5.1164376735687256e-01</leafValues></_>
    <_>
      <internalNodes>
        0 -1 4350702 -1.0957606136798859e-03</internalNodes>
      <leafValues>
        3.8165482878684998e-01 -8.0181199312210083e-01</leafValues></_>
    <_>
      <internalNodes>
        0 -1 371674 3.5577482776716352e-05</internalNodes>
      <leafValues>
        -4.4866323471069336e-01 4.8596787452697754e-01</leafValues></_>
    <_>
      <internalNodes>
        0 -1 5792204 6.2911224085837603e-04</internalNodes>
      <leafValues>
        -3.9853659272193909e-01 5.3755110502243042e-01</leafValues></_>
    <_>
      <internalNodes>
        0 -1 1542980 4.4115025957580656e-05</internalNodes>
      <leafValues>
        -3.5852372646331787e-01 6.4300268888473511e-01</leafValues></_>
    <_>
      <internalNodes>
        0 -1 5662362 3.7223835533950478e-05</internalNodes>
      <leafValues>
        -6.5176874399185181e-01 3.5958504676818848e-01</leafValues></_></weakClassifiers></stage4>
</opencv_storage>
