<?xml version="1.0"?>
<opencv_storage>
<stage7>
  <maxWeakCount>10</maxWeakCount>
  <stageThreshold>-1.0980412960052490e+00</stageThreshold>
  <weakClassifiers>
    <_>
      <internalNodes>
        0 -1 2933506 -8.1834316253662109e-02</internalNodes>
      <leafValues>
        -7.5686275959014893e-01 4.4089218974113464e-01</leafValues></_>
    <_>
      <internalNodes>
        0 -1 3017283 1.1326161620672792e-04</internalNodes>
      <leafValues>
        -6.0963994264602661e-01 3.1121423840522766e-01</leafValues></_>
    <_>
      <internalNodes>
        0 -1 72082 9.6908764680847526e-04</internalNodes>
      <leafValues>
        -6.9438076019287109e-01 2.6481246948242188e-01</leafValues></_>
    <_>
      <internalNodes>
        0 -1 5635130 -9.7941234707832336e-03</internalNodes>
      <leafValues>
        5.9244740009307861e-01 -3.4618180990219116e-01</leafValues></_>
    <_>
      <internalNodes>
        0 -1 6503228 -3.0166514989105053e-05</internalNodes>
      <leafValues>
        6.0014408826828003e-01 -3.0846962332725525e-01</leafValues></_>
    <_>
      <internalNodes>
        0 -1 4616630 -8.6735822260379791e-03</internalNodes>
      <leafValues>
        2.7926683425903320e-01 -7.7539795637130737e-01</leafValues></_>
    <_>
      <internalNodes>
        0 -1 6965421 -3.1301045964937657e-05</internalNodes>
      <leafValues>
        7.7385240793228149e-01 -2.9214829206466675e-01</leafValues></_>
    <_>
      <internalNodes>
        0 -1 7029162 1.6478606994496658e-05</internalNodes>
      <leafValues>
        -2.7670186758041382e-01 7.1912032365798950e-01</leafValues></_>
    <_>
      <internalNodes>
        0 -1 2465905 -2.1800557151436806e-03</internalNodes>
      <leafValues>
        3.8936823606491089e-01 -5.5795097351074219e-01</leafValues></_>
    <_>
      <internalNodes>
        0 -1 5036009 8.6571490101050586e-06</internalNodes>
      <leafValues>
        -5.3336787223815918e-01 3.4782117605209351e-01</leafValues></_></weakClassifiers></stage7>
</opencv_storage>
